digraph Tree {
node [shape=box] ;
0 [label="worst_perimeter <= 105.95\ngini = 0.4713\nsamples = 455\nvalue = [282, 173]"] ;
1 [label="worst_concave_points <= 0.1725\ngini = 0.0708\nsamples = 272\nvalue = [262, 10]"] ;
0 -> 1 [labeldistance=2.5, labelangle=45, headlabel="True"] ;
2 [label="radius_error <= 1.0475\ngini = 0.0297\nsamples = 265\nvalue = [261, 4]"] ;
1 -> 2 ;
3 [label="worst_smoothness <= 0.1905\ngini = 0.0225\nsamples = 264\nvalue = [261, 3]"] ;
2 -> 3 ;
4 [label="area_error <= 48.975\ngini = 0.0152\nsamples = 262\nvalue = [260, 2]"] ;
3 -> 4 ;
5 [label="smoothness_error <= 0.0033\ngini = 0.0077\nsamples = 258\nvalue = [257, 1]"] ;
4 -> 5 ;
6 [label="fractal_dimension_error <= 0.0015\ngini = 0.32\nsamples = 5\nvalue = [4, 1]"] ;
5 -> 6 ;
7 [label="gini = 0.0\nsamples = 1\nvalue = [0, 1]"] ;
6 -> 7 ;
8 [label="gini = 0.0\nsamples = 4\nvalue = [4, 0]"] ;
6 -> 8 ;
9 [label="gini = 0.0\nsamples = 253\nvalue = [253, 0]"] ;
5 -> 9 ;
10 [label="radius_error <= 0.6881\ngini = 0.375\nsamples = 4\nvalue = [3, 1]"] ;
4 -> 10 ;
11 [label="gini = 0.0\nsamples = 1\nvalue = [0, 1]"] ;
10 -> 11 ;
12 [label="gini = 0.0\nsamples = 3\nvalue = [3, 0]"] ;
10 -> 12 ;
13 [label="worst_compactness <= 0.318\ngini = 0.5\nsamples = 2\nvalue = [1, 1]"] ;
3 -> 13 ;
14 [label="gini = 0.0\nsamples = 1\nvalue = [0, 1]"] ;
13 -> 14 ;
15 [label="gini = 0.0\nsamples = 1\nvalue = [1, 0]"] ;
13 -> 15 ;
16 [label="gini = 0.0\nsamples = 1\nvalue = [0, 1]"] ;
2 -> 16 ;
17 [label="worst_area <= 416.4\ngini = 0.2449\nsamples = 7\nvalue = [1, 6]"] ;
1 -> 17 ;
18 [label="gini = 0.0\nsamples = 1\nvalue = [1, 0]"] ;
17 -> 18 ;
19 [label="gini = 0.0\nsamples = 6\nvalue = [0, 6]"] ;
17 -> 19 ;
20 [label="mean_concave_points <= 0.0428\ngini = 0.1947\nsamples = 183\nvalue = [20, 163]"] ;
0 -> 20 [labeldistance=2.5, labelangle=-45, headlabel="False"] ;
21 [label="concavity_error <= 0.018\ngini = 0.4628\nsamples = 22\nvalue = [14, 8]"] ;
20 -> 21 ;
22 [label="mean_fractal_dimension <= 0.0528\ngini = 0.2449\nsamples = 7\nvalue = [1, 6]"] ;
21 -> 22 ;
23 [label="gini = 0.0\nsamples = 1\nvalue = [1, 0]"] ;
22 -> 23 ;
24 [label="gini = 0.0\nsamples = 6\nvalue = [0, 6]"] ;
22 -> 24 ;
25 [label="area_error <= 41.415\ngini = 0.2311\nsamples = 15\nvalue = [13, 2]"] ;
21 -> 25 ;
26 [label="gini = 0.0\nsamples = 12\nvalue = [12, 0]"] ;
25 -> 26 ;
27 [label="concave_points_error <= 0.0103\ngini = 0.4444\nsamples = 3\nvalue = [1, 2]"] ;
25 -> 27 ;
28 [label="gini = 0.0\nsamples = 2\nvalue = [0, 2]"] ;
27 -> 28 ;
29 [label="gini = 0.0\nsamples = 1\nvalue = [1, 0]"] ;
27 -> 29 ;
30 [label="mean_texture <= 14.12\ngini = 0.0718\nsamples = 161\nvalue = [6, 155]"] ;
20 -> 30 ;
31 [label="gini = 0.0\nsamples = 3\nvalue = [3, 0]"] ;
30 -> 31 ;
32 [label="worst_concavity <= 0.2189\ngini = 0.0373\nsamples = 158\nvalue = [3, 155]"] ;
30 -> 32 ;
33 [label="worst_texture <= 30.07\ngini = 0.4444\nsamples = 3\nvalue = [2, 1]"] ;
32 -> 33 ;
34 [label="gini = 0.0\nsamples = 2\nvalue = [2, 0]"] ;
33 -> 34 ;
35 [label="gini = 0.0\nsamples = 1\nvalue = [0, 1]"] ;
33 -> 35 ;
36 [label="fractal_dimension_error <= 0.0129\ngini = 0.0128\nsamples = 155\nvalue = [1, 154]"] ;
32 -> 36 ;
37 [label="gini = 0.0\nsamples = 154\nvalue = [0, 154]"] ;
36 -> 37 ;
38 [label="gini = 0.0\nsamples = 1\nvalue = [1, 0]"] ;
36 -> 38 ;
}