digraph Tree {
node [shape=box] ;
0 [label="worst_perimeter <= 105.95\ngini = 0.4713\nsamples = 455\nvalue = [282, 173]"] ;
1 [label="worst_concave_points <= 0.1589\ngini = 0.091\nsamples = 272\nvalue = [259, 13]"] ;
0 -> 1 [labeldistance=2.5, labelangle=45, headlabel="True"] ;
2 [label="perimeter_error <= 6.5975\ngini = 0.0374\nsamples = 262\nvalue = [257, 5]"] ;
1 -> 2 ;
3 [label="worst_compactness <= 0.4554\ngini = 0.0302\nsamples = 261\nvalue = [257, 4]"] ;
2 -> 3 ;
4 [label="area_error <= 47.035\ngini = 0.0229\nsamples = 259\nvalue = [256, 3]"] ;
3 -> 4 ;
5 [label="mean_fractal_dimension <= 0.0542\ngini = 0.0156\nsamples = 255\nvalue = [253, 2]"] ;
4 -> 5 ;
6 [label="radius_error <= 0.3834\ngini = 0.32\nsamples = 5\nvalue = [4, 1]"] ;
5 -> 6 ;
7 [label="gini = 0.0\nsamples = 4\nvalue = [4, 0]"] ;
6 -> 7 ;
8 [label="gini = 0.0\nsamples = 1\nvalue = [0, 1]"] ;
6 -> 8 ;
9 [label="worst_texture <= 33.35\ngini = 0.008\nsamples = 250\nvalue = [249, 1]"] ;
5 -> 9 ;
10 [label="gini = 0.0\nsamples = 234\nvalue = [234, 0]"] ;
9 -> 10 ;
11 [label="mean_texture <= 23.2\ngini = 0.1172\nsamples = 16\nvalue = [15, 1]"] ;
9 -> 11 ;
12 [label="gini = 0.0\nsamples = 1\nvalue = [0, 1]"] ;
11 -> 12 ;
13 [label="gini = 0.0\nsamples = 15\nvalue = [15, 0]"] ;
11 -> 13 ;
14 [label="area_error <= 49.48\ngini = 0.375\nsamples = 4\nvalue = [3, 1]"] ;
4 -> 14 ;
15 [label="gini = 0.0\nsamples = 1\nvalue = [0, 1]"] ;
14 -> 15 ;
16 [label="gini = 0.0\nsamples = 3\nvalue = [3, 0]"] ;
14 -> 16 ;
17 [label="radius_error <= 0.3241\ngini = 0.5\nsamples = 2\nvalue = [1, 1]"] ;
3 -> 17 ;
18 [label="gini = 0.0\nsamples = 1\nvalue = [1, 0]"] ;
17 -> 18 ;
19 [label="gini = 0.0\nsamples = 1\nvalue = [0, 1]"] ;
17 -> 19 ;
20 [label="gini = 0.0\nsamples = 1\nvalue = [0, 1]"] ;
2 -> 20 ;
21 [label="worst_texture <= 23.47\ngini = 0.32\nsamples = 10\nvalue = [2, 8]"] ;
1 -> 21 ;
22 [label="gini = 0.0\nsamples = 2\nvalue = [2, 0]"] ;
21 -> 22 ;
23 [label="gini = 0.0\nsamples = 8\nvalue = [0, 8]"] ;
21 -> 23 ;
24 [label="mean_concave_points <= 0.0489\ngini = 0.2198\nsamples = 183\nvalue = [23, 160]"] ;
0 -> 24 [labeldistance=2.5, labelangle=-45, headlabel="False"] ;
25 [label="concave_points_error <= 0.0101\ngini = 0.4527\nsamples = 26\nvalue = [17, 9]"] ;
24 -> 25 ;
26 [label="mean_texture <= 15.805\ngini = 0.4592\nsamples = 14\nvalue = [5, 9]"] ;
25 -> 26 ;
27 [label="gini = 0.0\nsamples = 4\nvalue = [4, 0]"] ;
26 -> 27 ;
28 [label="mean_concavity <= 0.0872\ngini = 0.18\nsamples = 10\nvalue = [1, 9]"] ;
26 -> 28 ;
29 [label="gini = 0.0\nsamples = 9\nvalue = [0, 9]"] ;
28 -> 29 ;
30 [label="gini = 0.0\nsamples = 1\nvalue = [1, 0]"] ;
28 -> 30 ;
31 [label="gini = 0.0\nsamples = 12\nvalue = [12, 0]"] ;
25 -> 31 ;
32 [label="worst_texture <= 20.645\ngini = 0.0735\nsamples = 157\nvalue = [6, 151]"] ;
24 -> 32 ;
33 [label="mean_concave_points <= 0.0751\ngini = 0.4959\nsamples = 11\nvalue = [5, 6]"] ;
32 -> 33 ;
34 [label="gini = 0.0\nsamples = 5\nvalue = [5, 0]"] ;
33 -> 34 ;
35 [label="gini = 0.0\nsamples = 6\nvalue = [0, 6]"] ;
33 -> 35 ;
36 [label="worst_smoothness <= 0.0958\ngini = 0.0136\nsamples = 146\nvalue = [1, 145]"] ;
32 -> 36 ;
37 [label="gini = 0.0\nsamples = 1\nvalue = [1, 0]"] ;
36 -> 37 ;
38 [label="gini = 0.0\nsamples = 145\nvalue = [0, 145]"] ;
36 -> 38 ;
}